digraph Tree {
node [shape=box, style="filled, rounded", color="black", fontname=helvetica] ;
edge [fontname=helvetica] ;
0 [label="sepal length (cm) <= 5.45\ngini = 0.66\nsamples = 96\nvalue = [40, 58, 52]\nclass = versicolor", fillcolor="#f3fdf7"] ;
1 [label="petal width (cm) <= 0.7\ngini = 0.26\nsamples = 30\nvalue = [35, 5, 1]\nclass = setosa", fillcolor="#e9965a"] ;
0 -> 1 [labeldistance=2.5, labelangle=45, headlabel="True"] ;
2 [label="gini = 0.0\nsamples = 25\nvalue = [35, 0, 0]\nclass = setosa", fillcolor="#e58139"] ;
1 -> 2 ;
3 [label="sepal width (cm) <= 2.45\ngini = 0.28\nsamples = 5\nvalue = [0, 5, 1]\nclass = versicolor", fillcolor="#61ea9a"] ;
1 -> 3 ;
4 [label="gini = 0.0\nsamples = 3\nvalue = [0, 4, 0]\nclass = versicolor", fillcolor="#39e581"] ;
3 -> 4 ;
5 [label="sepal length (cm) <= 5.15\ngini = 0.5\nsamples = 2\nvalue = [0, 1, 1]\nclass = versicolor", fillcolor="#ffffff"] ;
3 -> 5 ;
6 [label="gini = 0.0\nsamples = 1\nvalue = [0, 0, 1]\nclass = virginica", fillcolor="#8139e5"] ;
5 -> 6 ;
7 [label="gini = 0.0\nsamples = 1\nvalue = [0, 1, 0]\nclass = versicolor", fillcolor="#39e581"] ;
5 -> 7 ;
8 [label="petal length (cm) <= 4.85\ngini = 0.54\nsamples = 66\nvalue = [5, 53, 51]\nclass = versicolor", fillcolor="#f8fefb"] ;
0 -> 8 [labeldistance=2.5, labelangle=-45, headlabel="False"] ;
9 [label="sepal width (cm) <= 3.45\ngini = 0.17\nsamples = 32\nvalue = [5, 49, 0]\nclass = versicolor", fillcolor="#4de88e"] ;
8 -> 9 ;
10 [label="gini = 0.0\nsamples = 28\nvalue = [0, 49, 0]\nclass = versicolor", fillcolor="#39e581"] ;
9 -> 10 ;
11 [label="gini = 0.0\nsamples = 4\nvalue = [5, 0, 0]\nclass = setosa", fillcolor="#e58139"] ;
9 -> 11 ;
12 [label="sepal width (cm) <= 2.75\ngini = 0.13\nsamples = 34\nvalue = [0, 4, 51]\nclass = virginica", fillcolor="#8b49e7"] ;
8 -> 12 ;
13 [label="petal width (cm) <= 1.7\ngini = 0.44\nsamples = 9\nvalue = [0, 4, 8]\nclass = virginica", fillcolor="#c09cf2"] ;
12 -> 13 ;
14 [label="sepal width (cm) <= 2.35\ngini = 0.32\nsamples = 3\nvalue = [0, 4, 1]\nclass = versicolor", fillcolor="#6aeca0"] ;
13 -> 14 ;
15 [label="gini = 0.0\nsamples = 1\nvalue = [0, 0, 1]\nclass = virginica", fillcolor="#8139e5"] ;
14 -> 15 ;
16 [label="gini = 0.0\nsamples = 2\nvalue = [0, 4, 0]\nclass = versicolor", fillcolor="#39e581"] ;
14 -> 16 ;
17 [label="gini = 0.0\nsamples = 6\nvalue = [0, 0, 7]\nclass = virginica", fillcolor="#8139e5"] ;
13 -> 17 ;
18 [label="gini = 0.0\nsamples = 25\nvalue = [0, 0, 43]\nclass = virginica", fillcolor="#8139e5"] ;
12 -> 18 ;
}